<?xml version="1.0"?>
<opencv_storage>
<cascade>
  <stageType>BOOST</stageType>
  <featureType>HAAR</featureType>
  <height>24</height>
  <width>24</width>
  <stageParams>
    <boostType>GAB</boostType>
    <minHitRate>9.9500000476837158e-01</minHitRate>
    <maxFalseAlarm>2.0000000298023224e-01</maxFalseAlarm>
    <weightTrimRate>9.4999999999999996e-01</weightTrimRate>
    <maxDepth>1</maxDepth>
    <maxWeakCount>100</maxWeakCount></stageParams>
  <featureParams>
    <maxCatCount>0</maxCatCount>
    <featSize>1</featSize>
    <mode>BASIC</mode></featureParams>
  <stageNum>2</stageNum>
  <stages>
    <!-- stage 0 -->
    <_>
      <maxWeakCount>7</maxWeakCount>
      <stageThreshold>-1.4236572980880737e+00</stageThreshold>
      <weakClassifiers>
        <_>
          <internalNodes>
            0 -1 7 4.2431727051734924e-02</internalNodes>
          <leafValues>
            -8.8739174604415894e-01 8.9896374940872192e-01</leafValues></_>
        <_>
          <internalNodes>
            0 -1 10 5.6626841425895691e-02</internalNodes>
          <leafValues>
            -7.3730242252349854e-01 7.4656826257705688e-01</leafValues></_>
        <_>
          <internalNodes>
            0 -1 11 -3.9232578128576279e-03</internalNodes>
          <leafValues>
            7.7180689573287964e-01 -4.6223911643028259e-01</leafValues></_>
        <_>
          <internalNodes>
            0 -1 13 8.7682274170219898e-04</internalNodes>
          <leafValues>
            3.1109353899955750e-01 -8.8464915752410889e-01</leafValues></_>
        <_>
          <internalNodes>
            0 -1 6 3.2838270068168640e-02</internalNodes>
          <leafValues>
            -5.1295906305313110e-01 4.9739137291908264e-01</leafValues></_>
        <_>
          <internalNodes>
            0 -1 9 -9.7965281456708908e-03</internalNodes>
          <leafValues>
            5.6255304813385010e-01 -4.6158704161643982e-01</leafValues></_>
        <_>
          <internalNodes>
            0 -1 2 -2.2069434635341167e-03</internalNodes>
          <leafValues>
            -8.2638853788375854e-01 3.1637808680534363e-01</leafValues></_></weakClassifiers></_>
    <!-- stage 1 -->
    <_>
      <maxWeakCount>9</maxWeakCount>
      <stageThreshold>-1.0304770469665527e+00</stageThreshold>
      <weakClassifiers>
        <_>
          <internalNodes>
            0 -1 8 8.0016545951366425e-02</internalNodes>
          <leafValues>
            -7.7808469533920288e-01 7.9646015167236328e-01</leafValues></_>
        <_>
          <internalNodes>
            0 -1 5 6.9891080260276794e-02</internalNodes>
          <leafValues>
            -5.8444416522979736e-01 6.0476803779602051e-01</leafValues></_>
        <_>
          <internalNodes>
            0 -1 0 -1.7115713562816381e-03</internalNodes>
          <leafValues>
            -8.1159633398056030e-01 2.4355605244636536e-01</leafValues></_>
        <_>
          <internalNodes>
            0 -1 0 2.0977514795958996e-03</internalNodes>
          <leafValues>
            2.6769933104515076e-01 -8.9792168140411377e-01</leafValues></_>
        <_>
          <internalNodes>
            0 -1 1 1.0813239496201277e-03</internalNodes>
          <leafValues>
            1.6326773166656494e-01 -8.5730177164077759e-01</leafValues></_>
        <_>
          <internalNodes>
            0 -1 3 -1.5196667518466711e-03</internalNodes>
          <leafValues>
            -6.8779557943344116e-01 2.6527795195579529e-01</leafValues></_>
        <_>
          <internalNodes>
            0 -1 14 -3.9083790034055710e-04</internalNodes>
          <leafValues>
            -8.8038021326065063e-01 1.6665938496589661e-01</leafValues></_>
        <_>
          <internalNodes>
            0 -1 4 1.1473795399069786e-02</internalNodes>
          <leafValues>
            1.3019269704818726e-01 -9.0698796510696411e-01</leafValues></_>
        <_>
          <internalNodes>
            0 -1 12 1.5875285025686026e-03</internalNodes>
          <leafValues>
            1.5055103600025177e-01 -8.7619292736053467e-01</leafValues></_></weakClassifiers></_></stages>
  <features>
    <_>
      <rects>
        <_>
          0 22 9 2 -1.</_>
        <_>
          3 22 3 2 3.</_></rects>
      <tilted>0</tilted></_>
    <_>
      <rects>
        <_>
          1 0 6 1 -1.</_>
        <_>
          4 0 3 1 2.</_></rects>
      <tilted>0</tilted></_>
    <_>
      <rects>
        <_>
          1 4 1 16 -1.</_>
        <_>
          1 12 1 8 2.</_></rects>
      <tilted>0</tilted></_>
    <_>
      <rects>
        <_>
          2 0 9 1 -1.</_>
        <_>
          5 0 3 1 3.</_></rects>
      <tilted>0</tilted></_>
    <_>
      <rects>
        <_>
          4 23 20 1 -1.</_>
        <_>
          14 23 10 1 2.</_></rects>
      <tilted>0</tilted></_>
    <_>
      <rects>
        <_>
          6 11 12 3 -1.</_>
        <_>
          10 11 4 3 3.</_></rects>
      <tilted>0</tilted></_>
    <_>
      <rects>
        <_>
          6 11 18 3 -1.</_>
        <_>
          12 11 6 3 3.</_></rects>
      <tilted>0</tilted></_>
    <_>
      <rects>
        <_>
          7 12 12 2 -1.</_>
        <_>
          11 12 4 2 3.</_></rects>
      <tilted>0</tilted></_>
    <_>
      <rects>
        <_>
          9 4 6 16 -1.</_>
        <_>
          9 4 3 8 2.</_>
        <_>
          12 12 3 8 2.</_></rects>
      <tilted>0</tilted></_>
    <_>
      <rects>
        <_>
          10 12 2 6 -1.</_>
        <_>
          10 15 2 3 2.</_></rects>
      <tilted>0</tilted></_>
    <_>
      <rects>
        <_>
          11 2 2 21 -1.</_>
        <_>
          11 9 2 7 3.</_></rects>
      <tilted>0</tilted></_>
    <_>
      <rects>
        <_>
          13 11 2 2 -1.</_>
        <_>
          14 11 1 2 2.</_></rects>
      <tilted>0</tilted></_>
    <_>
      <rects>
        <_>
          15 0 9 1 -1.</_>
        <_>
          18 0 3 1 3.</_></rects>
      <tilted>0</tilted></_>
    <_>
      <rects>
        <_>
          22 0 2 6 -1.</_>
        <_>
          22 0 1 3 2.</_>
        <_>
          23 3 1 3 2.</_></rects>
      <tilted>0</tilted></_>
    <_>
      <rects>
        <_>
          22 21 2 2 -1.</_>
        <_>
          22 22 2 1 2.</_></rects>
      <tilted>0</tilted></_></features></cascade>
</opencv_storage>
