<?xml version="1.0"?>
<opencv_storage>
<stage2>
  <maxWeakCount>6</maxWeakCount>
  <stageThreshold>-1.7768232822418213e+00</stageThreshold>
  <weakClassifiers>
    <_>
      <internalNodes>
        0 -1 101304 9.9061369895935059e-02</internalNodes>
      <leafValues>
        -8.2286429405212402e-01 7.0570570230484009e-01</leafValues></_>
    <_>
      <internalNodes>
        0 -1 77926 4.8651434481143951e-02</internalNodes>
      <leafValues>
        -6.4283078908920288e-01 5.0455814599990845e-01</leafValues></_>
    <_>
      <internalNodes>
        0 -1 25792 1.2852344661951065e-03</internalNodes>
      <leafValues>
        1.6263109445571899e-01 -8.8233643770217896e-01</leafValues></_>
    <_>
      <internalNodes>
        0 -1 37909 -1.1307408567517996e-03</internalNodes>
      <leafValues>
        -8.2840222120285034e-01 1.9016356766223907e-01</leafValues></_>
    <_>
      <internalNodes>
        0 -1 26532 -7.1046492084860802e-03</internalNodes>
      <leafValues>
        -8.4229141473770142e-01 1.9108164310455322e-01</leafValues></_>
    <_>
      <internalNodes>
        0 -1 151883 -1.5596391167491674e-03</internalNodes>
      <leafValues>
        -7.9546397924423218e-01 1.7836861312389374e-01</leafValues></_></weakClassifiers></stage2>
</opencv_storage>
